1403715284.412143 -0.000116 0.022252 0.076451 
1403715284.612143 0.000152 0.022600 0.076614 
1403715284.812143 -0.000031 0.022039 0.076707 
1403715285.012143 -0.000197 0.021951 0.076691 
1403715285.212143 -0.000240 0.021760 0.076784 
1403715285.412143 -0.000380 0.021893 0.076742 
1403715285.612143 -0.000515 0.021696 0.076458 
1403715285.812143 -0.000570 0.021855 0.076370 
1403715286.012143 -0.000867 0.021672 0.076207 
1403715286.212143 -0.001014 0.021841 0.076148 
1403715286.462143 -0.000994 0.021870 0.076065 
1403715286.662143 -0.001060 0.021775 0.076002 
1403715286.862143 -0.001257 0.021709 0.076008 
1403715287.062143 -0.001295 0.021620 0.076021 
1403715287.262143 -0.001231 0.021611 0.076190 
1403715287.462143 -0.001334 0.021717 0.076210 
1403715287.662143 -0.001485 0.021750 0.076203 
1403715287.862143 -0.001600 0.021622 0.076064 
1403715288.062143 -0.001463 0.021741 0.076197 
1403715288.312143 -0.001340 0.021622 0.076300 
1403715288.512143 -0.001524 0.021647 0.076162 
1403715288.762143 -0.001507 0.021532 0.076395 
1403715288.962143 -0.001600 0.021450 0.076246 
1403715289.162143 -0.001589 0.021365 0.076372 
1403715289.362143 -0.001717 0.021414 0.076337 
1403715289.562143 -0.001642 0.021462 0.076362 
1403715289.862143 -0.001550 0.021421 0.076432 
1403715290.112143 -0.001600 0.021402 0.076372 
1403715290.412143 -0.001551 0.021326 0.076363 
1403715290.612143 -0.001540 0.021269 0.076425 
1403715290.962143 -0.001519 0.021424 0.076397 
1403715291.162143 -0.001662 0.021312 0.076489 
1403715291.462143 -0.001722 0.021294 0.076465 
1403715291.762143 -0.001908 0.021279 0.076477 
1403715292.012143 -0.001896 0.021104 0.076484 
1403715292.212143 -0.001956 0.021127 0.076457 
1403715292.512143 -0.001974 0.021041 0.076469 
1403715292.762143 -0.001869 0.021095 0.076465 
1403715293.012143 -0.001868 0.021143 0.076514 
1403715293.212143 -0.002013 0.021163 0.076549 
1403715293.512143 -0.001984 0.021245 0.076592 
1403715293.712143 -0.001874 0.021200 0.076566 
1403715294.012143 -0.001819 0.021138 0.076592 
1403715294.312143 -0.001801 0.021076 0.076549 
1403715294.562143 -0.001712 0.020744 0.076600 
1403715294.862143 -0.001656 0.020999 0.076626 
1403715295.112143 -0.001546 0.020883 0.076696 
1403715295.362143 -0.001409 0.021012 0.076717 
1403715295.612143 -0.001502 0.020962 0.076696 
1403715295.862143 -0.001345 0.021017 0.076760 
1403715296.112143 -0.001336 0.021153 0.076671 
1403715296.362143 -0.001403 0.021118 0.076546 
1403715296.612143 -0.001374 0.021168 0.076484 
1403715296.862143 -0.001209 0.021327 0.076491 
1403715297.112143 -0.001140 0.021322 0.076522 
1403715297.362143 -0.001010 0.021382 0.076549 
1403715297.612143 -0.000830 0.021531 0.076570 
1403715297.962143 -0.000576 0.021706 0.076469 
1403715298.262143 -0.000529 0.021865 0.076603 
1403715298.512143 -0.000157 0.021781 0.076836 
1403715298.762143 -0.000015 0.021826 0.076830 
1403715299.062143 0.000052 0.021856 0.076795 
1403715299.262143 -0.000083 0.021785 0.076808 
1403715299.512143 -0.000197 0.021770 0.076829 
