1403715280.462143 -0.578285 -4.823519 -1.175484 
1403715280.612143 -0.247102 3.462043 -0.349414 
1403715280.812143 -0.696013 -1.161002 -1.586619 
1403715281.012143 0.550757 0.016146 1.758726 
1403715281.162143 -0.163623 -0.199587 -0.287499 
1403715281.362143 -0.138361 0.392314 -0.086215 
1403715281.562143 0.005932 0.082986 0.246134 
1403715281.762143 -0.023323 -0.013934 0.232563 
1403715281.962143 -0.082280 -0.086405 0.067517 
1403715282.162143 -0.016533 0.065519 0.228666 
1403715282.362143 -0.074854 -0.011578 0.075482 
1403715282.562143 -0.057491 -0.021963 0.133645 
1403715282.762143 -0.051381 0.018150 0.195087 
1403715282.962143 -0.054457 0.023111 0.164823 
1403715283.162143 -0.050984 0.027294 0.159497 
1403715283.362143 -0.040792 0.073978 0.139008 
1403715283.562143 -0.031100 0.094757 0.140596 
1403715283.812143 -0.022402 0.122169 0.137384 
1403715284.062143 -0.022584 0.125030 0.114851 
1403715284.362143 -0.009216 0.100846 0.100418 
1403715284.562143 -0.000296 0.098141 0.077770 
1403715284.762143 0.002304 0.091204 0.075419 
1403715284.962143 0.005384 0.086512 0.080613 
1403715285.262143 0.004729 0.096192 0.091771 
1403715285.512143 0.005480 0.094173 0.082408 
1403715285.712143 0.005746 0.077602 0.067242 
1403715285.912143 0.005085 0.076844 0.065562 
1403715286.112143 0.003941 0.075827 0.068065 
1403715286.312143 0.003070 0.077367 0.072961 
1403715286.512143 0.003059 0.076422 0.072103 
1403715286.812143 0.002444 0.075353 0.075994 
1403715287.012143 0.006725 0.078931 0.082068 
1403715287.212143 0.005129 0.089359 0.095438 
1403715287.412143 0.006700 0.088366 0.094706 
1403715287.662143 0.003756 0.094737 0.089696 
1403715287.962143 0.002723 0.096152 0.089476 
1403715288.212143 0.004798 0.116548 0.109330 
1403715288.462143 -0.004322 0.112865 0.103497 
1403715288.712143 -0.015915 0.103420 0.102806 
1403715288.912143 -0.011059 0.102459 0.110224 
1403715289.162143 -0.010368 0.094095 0.113110 
1403715289.412143 -0.012789 0.093057 0.110243 
1403715289.612143 -0.011857 0.090984 0.115371 
1403715289.812143 -0.011926 0.090816 0.119777 
1403715290.012143 -0.012723 0.092164 0.116397 
1403715290.312143 -0.014283 0.091854 0.114086 
1403715290.512143 -0.015534 0.090311 0.109150 
1403715290.812143 -0.017917 0.088570 0.109427 
1403715291.112143 -0.016599 0.089192 0.111333 
1403715291.362143 -0.022264 0.088636 0.123002 
1403715291.562143 -0.020151 0.098118 0.115462 
1403715291.862143 -0.021505 0.100330 0.113555 
1403715292.162143 -0.021839 0.103542 0.112225 
1403715292.362143 -0.023851 0.103570 0.119159 
1403715292.562143 -0.024597 0.106643 0.113883 
1403715292.862143 -0.024636 0.107601 0.110401 
1403715293.112143 -0.023039 0.106569 0.108956 
1403715293.362143 -0.026523 0.105338 0.106704 
1403715293.662143 -0.025131 0.106025 0.106509 
1403715293.862143 -0.023923 0.104885 0.105624 
1403715294.112143 -0.024554 0.104813 0.108268 
1403715294.412143 -0.023297 0.104650 0.107216 
1403715294.612143 -0.023619 0.111508 0.105223 
1403715294.862143 -0.021819 0.109465 0.106541 
1403715295.162143 -0.022176 0.110211 0.107799 
1403715295.412143 -0.018540 0.113373 0.101962 
1403715295.662143 -0.019133 0.117888 0.103561 
