1403715280.462143 -0.001922 0.020282 0.076859 
1403715280.612143 -0.001955 0.020138 0.077187 
1403715280.812143 -0.002419 0.021118 0.076808 
1403715281.012143 -0.001756 0.020613 0.076726 
1403715281.162143 -0.002094 0.019044 0.076748 
1403715281.362143 -0.002347 0.020553 0.077100 
1403715281.562143 -0.001542 0.020101 0.076866 
1403715281.762143 -0.001300 0.019948 0.076757 
1403715281.962143 -0.001926 0.020347 0.076627 
1403715282.162143 -0.001556 0.020849 0.076636 
1403715282.362143 -0.002261 0.020606 0.076352 
1403715282.562143 -0.002521 0.020511 0.076058 
1403715282.762143 -0.003024 0.020731 0.076168 
1403715282.962143 -0.002697 0.020751 0.076146 
1403715283.162143 -0.002173 0.021149 0.076163 
1403715283.362143 -0.001753 0.021546 0.076248 
1403715283.562143 -0.001421 0.021877 0.076318 
1403715283.812143 -0.001001 0.021826 0.076338 
1403715284.062143 -0.000792 0.021751 0.076395 
1403715284.362143 -0.000602 0.021641 0.076401 
1403715284.562143 -0.000463 0.021584 0.076640 
1403715284.762143 -0.000463 0.021554 0.076568 
1403715284.962143 -0.000643 0.021126 0.076439 
1403715285.262143 -0.000560 0.021214 0.076485 
1403715285.512143 -0.000501 0.021469 0.076508 
1403715285.712143 -0.000664 0.021581 0.076349 
1403715285.912143 -0.000820 0.021602 0.076177 
1403715286.112143 -0.001011 0.021587 0.076058 
1403715286.312143 -0.001016 0.021678 0.076084 
1403715286.512143 -0.001166 0.021721 0.076026 
1403715286.812143 -0.001305 0.021674 0.075902 
1403715287.012143 -0.001523 0.021527 0.075706 
1403715287.212143 -0.001481 0.021558 0.075845 
1403715287.412143 -0.001571 0.021549 0.075888 
1403715287.662143 -0.001514 0.021632 0.075929 
1403715287.962143 -0.001423 0.021702 0.076037 
1403715288.212143 -0.001243 0.021898 0.076057 
1403715288.462143 -0.001251 0.021969 0.076167 
1403715288.712143 -0.001404 0.021901 0.076139 
1403715288.912143 -0.001461 0.021853 0.076163 
1403715289.162143 -0.001475 0.021774 0.076207 
1403715289.412143 -0.001645 0.021747 0.076214 
1403715289.612143 -0.001629 0.021734 0.076333 
1403715289.812143 -0.001546 0.021626 0.076388 
1403715290.012143 -0.001520 0.021566 0.076408 
1403715290.312143 -0.001514 0.021609 0.076410 
1403715290.512143 -0.001535 0.021554 0.076367 
1403715290.812143 -0.001446 0.021439 0.076379 
1403715291.112143 -0.001469 0.021468 0.076380 
1403715291.362143 -0.001456 0.021537 0.076349 
1403715291.562143 -0.001520 0.021462 0.076345 
1403715291.862143 -0.001533 0.021396 0.076379 
1403715292.162143 -0.001624 0.021415 0.076349 
1403715292.362143 -0.001604 0.021285 0.076348 
1403715292.562143 -0.001564 0.021200 0.076345 
1403715292.862143 -0.001536 0.021269 0.076379 
1403715293.112143 -0.001493 0.021159 0.076465 
1403715293.362143 -0.001662 0.021282 0.076483 
1403715293.662143 -0.001629 0.021346 0.076537 
1403715293.862143 -0.001567 0.021365 0.076621 
1403715294.112143 -0.001622 0.021438 0.076620 
1403715294.412143 -0.001643 0.021404 0.076639 
1403715294.612143 -0.001480 0.021309 0.076698 
1403715294.862143 -0.001450 0.021242 0.076748 
1403715295.162143 -0.001444 0.021283 0.076774 
1403715295.412143 -0.001302 0.021139 0.076891 
1403715295.662143 -0.001188 0.021161 0.076904 
